-0.102535
-0.385111
0.676944
0.487554
-0.060237
-0.159839
0.470359
0.273333
-1.056289
-1.054534
1.804551
1.371555
0.173905
0.405736
-0.751288
-0.345963
0.343118
0.497440
-1.006138
-0.517983
-0.155135
-0.606083
1.041295
0.529780
0.342629
0.469170
-0.839169
-0.672232
0.338538
0.705383
-0.995249
-0.635280
-0.190565
-0.285079
0.689915
0.510078
0.283342
0.672206
-1.010502
-0.581678
0.537502
0.787273
-1.201354
-0.790474
-0.061206
0.104000
-0.328644
-0.097020
-0.248165
-0.583803
1.048327
0.764323
-0.299371
-0.769394
1.397843
0.708207
0.107757
-0.010714
0.078220
0.017817
-0.509087
-0.622033
1.227700
0.839966
-0.258612
-0.637351
1.156229
0.676013
0.488515
0.639357
-1.064089
-0.682158
0.825668
0.879710
-1.499942
-1.128705
-0.558884
-0.643958
1.251813
0.846200
-0.101226
-0.569495
0.813232
0.578341
-0.308825
-0.503538
1.151347
0.553553
0.782241
0.917054
-1.464925
-1.123031
-0.038540
-0.218990
0.510220
0.194391
0.588435
0.808976
-1.220496
-0.950310
-0.221044
-0.480540
0.946299
0.577697
0.484072
0.519138
-1.028606
-0.680105
-0.296919
-0.638010
1.149712
0.788318
0.560346
0.707409
-1.207953
-0.716497
-0.603186
-0.666248
1.301681
0.821680
-0.177303
-0.467868
0.872047
0.566777
0.606311
0.588743
-1.117403
-0.879352
-0.217913
-0.478958
0.959583
0.596259
0.120039
0.258331
-0.524076
-0.306856
1.066112
1.070437
-1.811095
-1.388900
0.509367
0.783210
-1.126103
-0.851257
0.440296
0.675817
-1.068350
-0.717570
-0.246382
-0.629488
1.207914
0.562568
-0.207369
-0.482455
0.938710
0.586428
-0.225864
-0.371766
0.849060
0.484756
-0.737653
-0.952095
1.500726
1.002236
-0.696929
-0.745909
1.348137
0.958264
-0.194742
-0.417175
0.901828
0.525756
-0.340399
-0.541167
1.116918
0.744399
-0.825308
-1.062772
1.611249
1.178949
-0.143682
0.112084
-0.131000
-0.133968
-0.213636
-0.480486
0.919272
0.583423
0.107717
0.391184
-0.586832
-0.399045
0.143540
0.227235
-0.551531
-0.295587
0.582371
0.621521
-1.209858
-0.697883
0.452255
0.556876
-1.079488
-0.540725
0.312375
0.671911
-0.856072
-0.761739
-0.298144
-0.578592
1.119915
0.748391
-0.368134
-0.528632
1.214785
0.650033
-0.585438
-0.781957
1.370911
0.788361
0.030992
-0.274774
0.430249
0.210314
-0.212537
-0.714160
1.147125
0.739261
0.007207
0.136010
-0.326338
-0.171363
-0.330515
-0.463340
1.116770
0.632630
-0.824179
-1.054155
1.564466
1.231522
0.235018
0.239834
-0.561083
-0.415545
-0.351115
-0.843556
1.438046
0.851097
-0.668686
-0.823139
1.366106
0.901021
-0.628575
-0.824191
1.352482
0.916603
0.404332
0.417679
-0.956414
-0.532269
-0.901791
-1.023514
1.636234
1.264048
0.542705
0.601643
-1.127921
-0.699048
-0.179862
-0.603196
0.995519
0.583438
-0.201798
-0.309222
0.723420
0.446882
-0.168731
-0.363799
0.826132
0.394862
0.735810
0.994451
-1.430185
-1.188483
0.603010
0.656960
-1.151564
-0.884114
-0.669659
-0.881498
1.343003
1.029258
0.695627
0.983014
-1.458842
-0.898001
0.047076
-0.388731
0.514240
0.235393
0.240263
0.443436
-0.765275
-0.519722
0.534489
0.603849
-1.066922
-0.804295
0.758408
1.064473
-1.535590
-1.132820
0.299425
0.449521
-0.871636
-0.530936
0.906118
0.940854
-1.606197
-1.216719
0.729419
0.901799
-1.437054
-0.912203
0.799406
0.924439
-1.474718
-1.158920
-0.060509
0.113172
-0.309669
-0.092522
-0.742852
-1.023184
1.512036
1.117855
0.211744
0.463622
-0.768258
-0.535705
1.018160
1.228478
-1.869319
-1.488440
0.727568
0.941449
-1.471244
-1.003304
-0.158724
-0.150337
0.576460
0.352622
0.180744
0.302901
-0.619310
-0.372564
0.524939
0.649726
-1.108751
-0.821846
-0.276624
-0.628500
1.121214
0.797252
0.121638
0.146817
-0.410412
-0.310919
0.923513
1.002233
-1.641897
-1.173926
-0.300035
-0.704979
1.233671
0.795999
-0.108605
-0.389384
0.736180
0.288405
0.217606
0.426247
-0.712735
-0.474194
-0.098987
-0.246968
0.597156
0.331469
-0.826217
-0.955998
1.559978
1.040914
0.663424
0.934486
-1.412379
-0.873426
-0.732753
-1.056612
1.489444
1.134907
-0.026757
-0.017881
-0.072842
0.024278
0.039157
-0.037776
0.039379
0.038790
-0.026264
0.040829
0.046644
0.010110
-0.045307
-0.051873
-0.003143
-0.054143
-0.048971
0.042348
0.060366
-0.053689
-0.032482
-0.042302
0.061298
-0.015608
0.053713
-0.036350
0.043737
-0.044981
0.042416
-0.055998
-0.038261
0.041797
-0.037652
0.023205
0.065920
0.047426
0.041922
-0.042779
-0.039891
-0.031619
-0.062552
-0.055519
-0.033659
-0.049023
-0.063174
0.001143
-0.035395
0.026028
0.022653
0.046834
0.037187
0.042708
-0.044342
-0.042998
-0.051082
-0.011152
-0.043263
0.009205
-0.045422
-0.061188
0.021079
-0.057446
-0.053694
-0.054476
0.032485
-0.069140
0.042563
-0.040262
-0.025951
-0.030091
0.057211
0.051641
-0.062158
0.059855
-0.020649
0.030559
0.043744
0.059753
0.034398
0.065696
0.058786
0.056684
0.014248
-0.066693
0.033893
0.067746
0.053876
-0.018650
0.021176
0.041235
-0.042486
0.010884
0.061291
-0.054038
-0.021379
0.030519
-0.018564
-0.057925
0.056853
-0.067455
0.038074
0.018216
0.203336
-0.051214
-0.077018
0.052382
-0.087370
-0.092811
0.038991
-0.084038
-0.129103
-0.019524
0.067316
0.091117
-0.003735
0.097980
0.062547
-0.104523
-0.176812
0.108692
0.040080
0.061442
-0.169109
0.015696
-0.137561
0.057750
-0.103251
0.074239
-0.124726
0.112609
0.045966
-0.122488
0.049973
-0.040525
-0.214905
-0.119836
-0.105390
0.063293
0.057118
0.039497
0.156885
0.132989
0.053480
0.079160
0.179390
-0.014012
0.048631
-0.044254
-0.040370
-0.122455
-0.088784
-0.090444
0.078043
0.079827
0.116884
0.013106
0.072904
-0.031161
0.058238
0.174261
-0.049106
0.100784
0.133406
0.129074
-0.080301
0.182422
-0.114000
0.054603
0.035152
0.045144
-0.175406
-0.130683
0.134402
-0.161048
0.021969
-0.068039
-0.117568
-0.182771
-0.075592
-0.184337
-0.152785
-0.175831
-0.020336
0.166047
-0.061162
-0.226353
-0.168368
0.025212
-0.046753
-0.123651
0.075399
-0.030137
-0.185634
0.084432
0.032518
-0.064794
0.030438
0.164673
-0.153166
0.159896
0.070562
0.049625
0.145287
-0.060854
-0.084846
0.102949
-0.066244
-0.086693
0.066593
-0.087639
-0.096276
-0.020774
0.109790
0.135370
0.019216
0.122489
0.116670
-0.080355
-0.108485
0.120509
0.088098
0.105976
-0.108612
0.051391
-0.096836
0.090335
-0.083135
0.120693
-0.094090
0.123306
0.090670
-0.091513
0.094151
-0.041324
-0.126356
-0.097914
-0.093332
0.111918
0.093784
0.083908
0.126395
0.122128
0.084352
0.110647
0.136711
-0.015002
0.089168
-0.051238
-0.038355
-0.094422
-0.087044
-0.076112
0.108736
0.112107
0.131806
0.046059
0.118683
-0.018299
0.100662
0.133164
-0.038456
0.143751
0.125668
0.126672
-0.073384
0.131585
-0.087287
0.097544
0.062905
0.075116
-0.111607
-0.091785
0.128218
-0.111027
0.049282
-0.058919
-0.082369
-0.118251
-0.073447
-0.116291
-0.111637
-0.107318
-0.018805
0.132955
-0.069080
-0.135516
-0.114312
0.051796
-0.052329
-0.092570
0.114043
-0.022648
-0.117726
0.124715
0.071956
-0.055380
0.056213
0.131628
-0.106523
0.139613
0.049904
0.033833
0.092306
-0.038544
-0.056405
0.069830
-0.045972
-0.057203
0.042853
-0.058814
-0.068559
-0.019707
0.076485
0.085947
0.007586
0.074461
0.078518
-0.054253
-0.069767
0.083649
0.054182
0.073983
-0.073008
0.036255
-0.068089
0.063516
-0.055294
0.082373
-0.060720
0.077177
0.061045
-0.054499
0.065643
-0.025021
-0.077716
-0.063626
-0.058308
0.075505
0.062511
0.054248
0.084163
0.084966
0.062280
0.070172
0.089267
-0.008155
0.064625
-0.031067
-0.024137
-0.064628
-0.052164
-0.047927
0.072031
0.075472
0.082659
0.029865
0.082184
-0.013195
0.073432
0.086539
-0.026150
0.094426
0.085549
0.081337
-0.052990
0.085482
-0.054178
0.063364
0.041217
0.055006
-0.075923
-0.060236
0.079071
-0.075185
0.039341
-0.043492
-0.052393
-0.080527
-0.046760
-0.073859
-0.070687
-0.068053
-0.011368
0.090153
-0.043838
-0.087134
-0.075708
0.036261
-0.033830
-0.056801
0.079222
-0.024003
-0.073345
0.082277
0.041037
-0.043698
0.037569
0.081705
-0.074532
0.086413
0.017649
0.012659
0.042964
-0.014492
-0.017322
0.025412
-0.019582
-0.018861
0.015040
-0.023437
-0.028875
-0.010625
0.021059
0.028752
0.000412
0.032260
0.029414
-0.028717
-0.032050
0.030595
0.019114
0.027207
-0.033286
0.009171
-0.031602
0.025627
-0.028675
0.027397
-0.027728
0.031246
0.020616
-0.028370
0.020802
-0.008535
-0.041912
-0.027690
-0.021069
0.028415
0.023878
0.019445
0.034554
0.033317
0.023840
0.029098
0.033327
-0.001953
0.016359
-0.018577
-0.015199
-0.027559
-0.025307
-0.019572
0.028182
0.022311
0.033806
0.012917
0.029567
-0.009387
0.021210
0.040535
-0.013458
0.034661
0.031464
0.036113
-0.016771
0.039833
-0.028483
0.025836
0.020098
0.012691
-0.035600
-0.024102
0.035797
-0.032933
0.014216
-0.016620
-0.023915
-0.036374
-0.022044
-0.032190
-0.031546
-0.034551
-0.002474
0.031878
-0.023095
-0.038371
-0.032608
0.010475
-0.011747
-0.031438
0.024901
-0.013474
-0.037095
0.033244
0.018317
-0.012696
0.014682
0.036121
-0.036428
0.035242
-0.037367
-0.022043
-0.079967
0.031388
0.043336
-0.050692
0.038632
0.043896
-0.033951
0.051667
0.053028
0.011142
-0.052417
-0.069340
-0.010904
-0.066667
-0.058809
0.050502
0.066001
-0.059642
-0.041582
-0.053659
0.064040
-0.024518
0.054262
-0.045559
0.046210
-0.056006
0.053122
-0.068676
-0.042171
0.045597
-0.049351
0.025469
0.070867
0.049712
0.048405
-0.055811
-0.047948
-0.039247
-0.066809
-0.064076
-0.046615
-0.055815
-0.076828
0.001718
-0.047720
0.029428
0.018887
0.052343
0.047815
0.045468
-0.056552
-0.056281
-0.067035
-0.024470
-0.062403
0.013889
-0.054977
-0.076038
0.028039
-0.074439
-0.065628
-0.066106
0.037930
-0.075511
0.052882
-0.048057
-0.031378
-0.041456
0.065425
0.047915
-0.070771
0.066171
-0.029748
0.038340
0.043987
0.061950
0.040904
0.067215
0.063401
0.068375
0.007808
-0.072151
0.039122
0.075431
0.059651
-0.029823
0.024848
0.053228
-0.058178
0.014752
0.065687
-0.061471
-0.034126
0.028348
-0.023518
-0.076048
0.058968
-0.078092
-0.002846
-0.000301
0.003708
0.001328
-0.000628
-0.000036
0.001769
0.001448
0.000069
0.004053
0.002386
-0.003089
0.002427
-0.002889
0.000132
-0.000288
0.000791
0.003140
-0.001038
0.001327
0.001336
0.001505
0.002462
-0.003675
0.004653
-0.005222
0.001528
0.001692
-0.003686
-0.002651
-0.002402
0.003063
-0.002620
-0.004346
-0.003173
0.004870
-0.000474
-0.002755
-0.002507
0.001521
0.001473
-0.003759
-0.004134
-0.004042
-0.000481
-0.002919
0.000046
-0.004202
0.000737
-0.002088
-0.002821
0.002623
-0.001799
0.002406
-0.006197
-0.005632
-0.005671
0.000895
-0.000397
-0.004711
0.003278
0.003096
0.002657
-0.001463
0.003005
-0.005121
-0.004035
-0.002574
0.002014
0.002188
0.001733
-0.000127
-0.004333
0.001088
-0.005828
0.002214
0.002657
0.004482
0.000596
0.003717
-0.003209
0.001941
0.001962
0.003512
0.002302
0.001375
0.004901
-0.000059
0.003232
-0.003746
-0.001764
0.004295
-0.000202
-0.003201
-0.005730
-0.003356
-0.002573
-0.003259
0.004203
0.003892
0.024193
0.016278
0.155686
-0.042467
-0.067065
0.041466
-0.073178
-0.080484
0.027560
-0.076559
-0.105222
-0.015296
0.056332
0.079472
-0.002569
0.083416
0.055942
-0.086395
-0.143620
0.091740
0.036622
0.053536
-0.141099
0.010623
-0.111593
0.046956
-0.086728
0.066616
-0.101489
0.094261
0.042270
-0.099040
0.046919
-0.036996
-0.172356
-0.099892
-0.086164
0.047702
0.046218
0.033758
0.123454
0.104508
0.040854
0.061081
0.139824
-0.011558
0.043695
-0.046139
-0.037955
-0.100778
-0.076452
-0.078549
0.066512
0.065213
0.092618
0.009757
0.063872
-0.026482
0.055837
0.140483
-0.045379
0.084686
0.109911
0.103739
-0.065517
0.148717
-0.089106
0.046005
0.033888
0.036884
-0.141606
-0.101480
0.109659
-0.131134
0.014335
-0.061144
-0.096256
-0.143254
-0.061450
-0.153495
-0.125697
-0.140776
-0.021506
0.127619
-0.051495
-0.185586
-0.135469
0.019751
-0.044755
-0.094332
0.061479
-0.034082
-0.149783
0.074218
0.031025
-0.052902
0.022438
0.130998
-0.126598
0.132330
0.024045
0.011179
0.163247
-0.047424
-0.067844
0.044220
-0.071330
-0.080404
0.032140
-0.076982
-0.103100
-0.018566
0.062501
0.080638
-0.006497
0.084650
0.061513
-0.083568
-0.137459
0.085809
0.043423
0.050448
-0.141495
0.015554
-0.114702
0.050939
-0.079365
0.069149
-0.100405
0.094908
0.044005
-0.103529
0.043910
-0.039415
-0.174313
-0.098127
-0.089497
0.054899
0.042676
0.035291
0.125916
0.109267
0.038942
0.061815
0.144687
-0.011544
0.050239
-0.040807
-0.039769
-0.097066
-0.076244
-0.078014
0.058640
0.063594
0.099306
0.014485
0.055412
-0.019658
0.056286
0.145310
-0.041826
0.088302
0.104234
0.109730
-0.063177
0.150070
-0.093803
0.051841
0.034869
0.035388
-0.140647
-0.104670
0.114359
-0.127832
0.013134
-0.061876
-0.092551
-0.143581
-0.060343
-0.155018
-0.130349
-0.143659
-0.020116
0.138675
-0.052037
-0.186647
-0.141341
0.026500
-0.047181
-0.099326
0.064456
-0.032531
-0.158152
0.068194
0.027906
-0.049212
0.022229
0.129740
-0.120429
0.128238
-0.014561
-0.009702
-0.032043
0.007411
0.017178
-0.019698
0.011907
0.018155
-0.016857
0.013584
0.024304
0.008291
-0.023115
-0.026225
-0.004560
-0.027800
-0.017022
0.015368
0.031528
-0.026563
-0.012993
-0.019952
0.022507
-0.006306
0.019669
-0.018906
0.013781
-0.020091
0.021463
-0.019705
-0.014234
0.021702
-0.016952
0.013191
0.035721
0.018850
0.023509
-0.014650
-0.017073
-0.016156
-0.026101
-0.024389
-0.020298
-0.017487
-0.026214
0.000607
-0.016064
0.010132
0.013253
0.016730
0.019445
0.016596
-0.016719
-0.022063
-0.028744
-0.004347
-0.021055
0.007521
-0.016330
-0.026467
0.010546
-0.028487
-0.023935
-0.029377
0.017015
-0.034015
0.015512
-0.015951
-0.009020
-0.014431
0.028587
0.022459
-0.021380
0.028468
-0.012839
0.015769
0.024060
0.031059
0.015287
0.031302
0.022268
0.023312
0.005687
-0.023612
0.018064
0.034045
0.029282
-0.005667
0.011220
0.019333
-0.019641
0.004075
0.027201
-0.022723
-0.012357
0.013451
-0.010976
-0.030081
0.020130
-0.023759
-0.004267
-0.007610
-0.015620
0.007730
0.014706
-0.010657
0.012868
0.010995
-0.006027
0.014434
0.010297
0.004193
-0.009544
-0.018588
0.001628
-0.019497
-0.012370
0.008725
0.020911
-0.010974
-0.007816
-0.018409
0.018173
-0.008750
0.013150
-0.012051
0.010534
-0.018165
0.014966
-0.014832
-0.012935
0.017305
-0.012107
0.002703
0.019516
0.015439
0.017348
-0.009112
-0.008791
-0.010024
-0.012787
-0.017344
-0.010480
-0.010446
-0.021218
-0.000176
-0.010655
0.002712
0.008677
0.015975
0.015350
0.012680
-0.011997
-0.017085
-0.017845
-0.005574
-0.011796
0.001213
-0.011429
-0.020824
0.002137
-0.017537
-0.018541
-0.012615
0.009894
-0.015453
0.008275
-0.011100
-0.012482
-0.010047
0.014101
0.017267
-0.012248
0.018713
-0.001678
0.005016
0.011251
0.017159
0.012916
0.012530
0.013614
0.020753
-0.001369
-0.020258
0.008530
0.022478
0.011426
-0.003801
0.005100
0.017089
-0.016181
0.006360
0.015621
-0.013202
-0.009189
0.008891
-0.011626
-0.018202
0.016452
-0.015340
-0.109835
-0.071413
-0.168708
0.096332
0.129563
-0.157786
0.109583
0.125195
-0.107615
0.135475
0.141209
0.039772
-0.162180
-0.196617
-0.018435
-0.171725
-0.166758
0.123257
0.136610
-0.169196
-0.135586
-0.159112
0.141885
-0.071012
0.141745
-0.142779
0.122066
-0.170809
0.136754
-0.170526
-0.131001
0.121211
-0.143823
0.066167
0.145724
0.137164
0.130642
-0.175594
-0.141596
-0.121378
-0.170765
-0.175533
-0.133201
-0.165859
-0.169868
0.019537
-0.139182
0.077887
0.070456
0.138156
0.127699
0.113337
-0.169548
-0.171435
-0.179778
-0.063521
-0.175714
0.037800
-0.162785
-0.162507
0.062577
-0.208240
-0.167577
-0.177874
0.117648
-0.166919
0.130554
-0.151328
-0.108429
-0.115010
0.143005
0.124075
-0.173916
0.141161
-0.080995
0.103554
0.119377
0.150524
0.109563
0.135352
0.143915
0.142248
0.032840
-0.168569
0.108967
0.156120
0.146342
-0.080849
0.075715
0.123625
-0.175031
0.042338
0.146593
-0.182261
-0.106041
0.094885
-0.093602
-0.171006
0.150120
-0.174605
-0.001256
0.001533
0.009788
-0.006510
0.000502
0.001808
-0.004732
-0.004999
0.004955
-0.002589
-0.001212
-0.002146
0.009534
0.002027
-0.002607
0.008806
0.004573
-0.005581
-0.007814
0.009089
0.005899
0.006791
-0.004214
0.002855
-0.002485
0.007751
-0.005139
0.002508
-0.008941
0.002561
0.002833
-0.001500
0.004243
-0.000966
-0.008925
-0.000389
-0.008792
0.002420
0.003508
-0.001132
0.004128
0.005642
0.004651
0.004384
0.006796
0.000352
0.004589
-0.006701
-0.003474
-0.001516
-0.006882
-0.000139
0.007095
0.001194
0.005130
0.002746
0.005719
-0.004070
0.000149
0.004062
-0.000938
0.007320
0.005986
0.008968
-0.006526
0.007259
-0.009570
0.009211
0.001415
0.004535
-0.008442
-0.000415
0.002484
-0.008298
0.001629
-0.007819
-0.003117
-0.009181
-0.005242
-0.002155
-0.010276
-0.004071
0.001182
0.006631
-0.001571
-0.002128
-0.010456
-0.000462
-0.006194
-0.008136
0.005772
-0.005551
-0.008761
0.003709
0.005594
-0.005241
-0.000790
0.008054
-0.006875
0.009820
-0.023045
-0.008228
-0.104866
0.033730
0.052044
-0.038265
0.046419
0.061180
-0.028675
0.049994
0.068082
0.019837
-0.045313
-0.055375
0.003996
-0.056370
-0.040045
0.058975
0.099281
-0.066111
-0.030259
-0.041929
0.097452
-0.014926
0.077136
-0.031441
0.061338
-0.051682
0.070599
-0.066060
-0.032326
0.071135
-0.036980
0.023862
0.115664
0.072519
0.064253
-0.037122
-0.037387
-0.031186
-0.088750
-0.071925
-0.029864
-0.044847
-0.090348
0.014650
-0.036322
0.028851
0.021857
0.064054
0.059625
0.056141
-0.049118
-0.052421
-0.068560
-0.012217
-0.049823
0.011581
-0.037542
-0.090885
0.033802
-0.061595
-0.073651
-0.070462
0.045956
-0.096688
0.065839
-0.035460
-0.024071
-0.027102
0.092948
0.068432
-0.080220
0.089816
-0.013837
0.044508
0.061776
0.103867
0.044189
0.100804
0.087822
0.094560
0.016241
-0.093453
0.040072
0.124201
0.092581
-0.015565
0.029399
0.068973
-0.051696
0.025481
0.107039
-0.051794
-0.021105
0.038906
-0.015944
-0.083193
0.089920
-0.088766
0.029805
0.019024
0.193969
-0.048666
-0.077580
0.049860
-0.083322
-0.097551
0.032891
-0.086737
-0.120096
-0.025483
0.069973
0.086019
-0.000460
0.100444
0.066702
-0.103928
-0.167047
0.102893
0.045888
0.066429
-0.161985
0.019531
-0.139750
0.054681
-0.096710
0.078621
-0.116115
0.104921
0.051712
-0.122904
0.051419
-0.043085
-0.207931
-0.119642
-0.110521
0.059177
0.057757
0.038057
0.151248
0.126125
0.047503
0.071846
0.170797
-0.018823
0.057195
-0.048246
-0.043793
-0.116614
-0.089948
-0.092820
0.074479
0.077550
0.117504
0.018166
0.074179
-0.021931
0.059479
0.174731
-0.045218
0.109616
0.131573
0.128262
-0.077967
0.177005
-0.108381
0.058591
0.038206
0.042342
-0.166278
-0.125138
0.134009
-0.153584
0.019566
-0.062980
-0.114667
-0.171550
-0.075907
-0.185142
-0.149106
-0.169586
-0.021830
0.159248
-0.069310
-0.224747
-0.158565
0.026192
-0.052759
-0.121514
0.068993
-0.032712
-0.182028
0.088853
0.028835
-0.063681
0.028637
0.158741
-0.143989
0.161718
-0.018216
-0.011587
-0.091296
0.028432
0.039213
-0.034349
0.043112
0.048300
-0.019090
0.049124
0.066652
0.010502
-0.042936
-0.051097
0.002474
-0.056175
-0.040816
0.050658
0.087338
-0.055937
-0.027409
-0.036462
0.086465
-0.014018
0.065040
-0.026473
0.049718
-0.046377
0.061368
-0.057402
-0.024616
0.065836
-0.030591
0.023540
0.103388
0.063815
0.059106
-0.037785
-0.033383
-0.028517
-0.078770
-0.065158
-0.030681
-0.040709
-0.086527
0.007347
-0.027111
0.030565
0.018395
0.060829
0.047103
0.047203
-0.043539
-0.040420
-0.063203
-0.013274
-0.039387
0.017589
-0.040273
-0.085535
0.030741
-0.053668
-0.061845
-0.064562
0.043174
-0.082369
0.055550
-0.037449
-0.022722
-0.021032
0.086020
0.062373
-0.065972
0.075084
-0.009728
0.032212
0.060955
0.084348
0.037988
0.092365
0.074469
0.082267
0.014895
-0.077620
0.032072
0.100358
0.077348
-0.016702
0.032059
0.059848
-0.036945
0.022549
0.088460
-0.045041
-0.022634
0.033200
-0.011242
-0.075549
0.075236
-0.073386
-0.031328
-0.013991
-0.159621
0.048496
0.064953
-0.045692
0.072776
0.081739
-0.035128
0.072907
0.106041
0.017014
-0.057494
-0.075327
0.004073
-0.082968
-0.060209
0.088881
0.142794
-0.086813
-0.040027
-0.051751
0.135897
-0.018940
0.114615
-0.044419
0.080621
-0.069857
0.099425
-0.090189
-0.041203
0.100101
-0.043290
0.032110
0.170440
0.102712
0.084296
-0.058417
-0.043949
-0.032161
-0.125920
-0.107752
-0.038428
-0.066166
-0.142526
0.009733
-0.049127
0.042482
0.033637
0.093061
0.079347
0.077761
-0.059694
-0.061325
-0.094091
-0.016258
-0.056537
0.022525
-0.049557
-0.139599
0.036991
-0.089332
-0.103986
-0.107312
0.071188
-0.147663
0.096393
-0.048904
-0.025874
-0.034506
0.134755
0.104217
-0.112645
0.130975
-0.017239
0.059415
0.093706
0.147540
0.068043
0.153292
0.130986
0.139939
0.014930
-0.126720
0.052413
0.174595
0.129996
-0.021095
0.045502
0.096828
-0.061193
0.029205
0.150136
-0.070575
-0.023753
0.050105
-0.019513
-0.128802
0.125465
-0.125020
0.042899
0.027639
0.100872
-0.036526
-0.049356
0.059164
-0.047037
-0.055313
0.042348
-0.055267
-0.066299
-0.012827
0.062188
0.083318
0.004480
0.071974
0.066646
-0.056490
-0.079129
0.073738
0.048807
0.062821
-0.083026
0.022985
-0.072148
0.048670
-0.055123
0.068508
-0.065459
0.075009
0.054309
-0.062519
0.053319
-0.027046
-0.097762
-0.067798
-0.059844
0.067194
0.050391
0.044755
0.090094
0.079721
0.048375
0.063254
0.094175
-0.005513
0.054685
-0.028738
-0.026675
-0.064836
-0.049624
-0.052894
0.067360
0.064213
0.079979
0.027148
0.067157
-0.017353
0.057432
0.095600
-0.024825
0.082489
0.085269
0.087376
-0.046517
0.095418
-0.057582
0.058700
0.036641
0.042943
-0.082459
-0.068360
0.085312
-0.074228
0.032005
-0.036738
-0.061513
-0.081002
-0.047498
-0.081856
-0.073634
-0.080998
-0.016208
0.087647
-0.042998
-0.095568
-0.082147
0.029916
-0.027986
-0.062613
0.070191
-0.022678
-0.088667
0.074666
0.033986
-0.040121
0.029980
0.087780
-0.076789
0.090051
-0.041403
-0.024088
-0.074202
0.034214
0.048598
-0.054134
0.037443
0.050386
-0.034457
0.044212
0.056428
0.011637
-0.057589
-0.074455
-0.003303
-0.059699
-0.066845
0.051261
0.053048
-0.066392
-0.046645
-0.059869
0.055095
-0.027243
0.049012
-0.051353
0.046447
-0.059571
0.050237
-0.068361
-0.043903
0.046216
-0.049666
0.024257
0.060164
0.052427
0.048358
-0.065502
-0.049205
-0.044766
-0.067326
-0.069408
-0.050466
-0.062000
-0.072187
0.008863
-0.045919
0.031514
0.026275
0.045885
0.044038
0.042504
-0.061223
-0.061268
-0.064461
-0.024619
-0.067963
0.009451
-0.058532
-0.069474
0.020714
-0.076894
-0.065602
-0.064123
0.044348
-0.065950
0.051904
-0.059923
-0.033411
-0.046623
0.055632
0.050223
-0.069858
0.054110
-0.032830
0.035153
0.042524
0.059318
0.041914
0.058610
0.054322
0.060091
0.013527
-0.072112
0.033033
0.067325
0.053326
-0.030273
0.025781
0.047992
-0.063277
0.019871
0.063672
-0.067942
-0.035513
0.028899
-0.032873
-0.069982
0.057998
-0.072169
-0.030531
-0.011474
-0.089920
0.031096
0.046337
-0.040423
0.043313
0.044979
-0.032858
0.049326
0.057490
0.007758
-0.048388
-0.066318
-0.005997
-0.057515
-0.049304
0.051954
0.077816
-0.056314
-0.032850
-0.046832
0.075272
-0.019101
0.062880
-0.038615
0.045434
-0.057137
0.062039
-0.063219
-0.040880
0.057445
-0.043394
0.018428
0.081965
0.059082
0.049422
-0.049196
-0.039244
-0.037498
-0.077320
-0.068122
-0.039031
-0.048324
-0.077172
0.003059
-0.036312
0.022778
0.026647
0.055652
0.051228
0.049659
-0.056015
-0.055547
-0.065156
-0.012500
-0.049236
0.018260
-0.049551
-0.074594
0.027327
-0.067519
-0.071491
-0.067149
0.044802
-0.075782
0.049281
-0.039035
-0.032016
-0.029661
0.077655
0.060483
-0.071679
0.070088
-0.018149
0.031008
0.051719
0.078591
0.037677
0.077195
0.072394
0.076782
0.016288
-0.080718
0.033432
0.089895
0.072070
-0.022144
0.024387
0.060086
-0.052161
0.018879
0.075755
-0.058539
-0.028868
0.029219
-0.022971
-0.074897
0.072197
-0.076718
0.502849
-1.123076
-1.421819
-0.930763
-0.405858
0.646587
-0.053215
-0.997272
-1.005229
0.204964
0.066940
1.724128
-0.139501
0.654666
-1.175944
0.570266
0.883647
-0.951036
0.605908
0.661448
-0.142659
-1.284767
0.978965
0.512154
0.046432
-0.275946
-0.029120
-0.878307
-0.878649
-0.053581
-0.067704
-2.286181
0.001390
0.321038
-1.152625
0.241744
0.792643
0.221984
-0.424081
-0.060512
-0.722396
1.434009
1.185033
0.765059
0.329255
-0.777228
-0.053871
1.201370
1.230412
-0.317710
-0.245675
-1.327586
0.013287
-0.984052
1.449003
-0.860202
-1.310327
0.893070
-0.703058
-0.863450
0.000000
0.000000
0.000000
0.000000
-0.345121
-0.149549
-1.297234
0.422447
0.632678
-0.537109
0.744563
0.651842
-0.350348
0.724842
0.880695
0.163309
-0.633858
-0.766051
-0.051229
-0.671455
-0.468684
0.559729
1.263251
-0.743133
-0.363783
-0.512837
1.214435
-0.169286
1.032935
-0.520016
0.730397
-0.636114
0.858541
-0.730186
-0.507072
0.885473
-0.518704
0.256987
1.311331
0.767329
0.818435
-0.495640
-0.573365
-0.301107
-1.201317
-0.922940
-0.613017
-0.561550
-1.318527
-0.005966
-0.483019
0.359015
0.319960
0.915402
0.551151
0.575149
-0.663538
-0.645643
-0.775724
-0.139489
-0.534530
0.035474
-0.489052
-1.217963
0.178052
-0.827227
-0.866761
-1.010699
0.560273
-1.272030
0.778812
-0.452392
-0.266390
-0.550213
1.221289
0.885957
-0.870013
1.059930
-0.232990
0.559595
0.841036
1.319041
0.676727
1.310364
0.984287
1.213338
0.239138
-1.273220
0.481514
1.632755
1.270534
-0.301364
0.390950
1.007455
-0.529025
0.207112
1.110672
-0.669378
-0.290900
0.382372
-0.353820
-1.037626
1.067614
-1.110143
-0.062729
-1.722392
1.176894
0.753048
-0.023094
-0.367206
-0.079230
-1.470883
-1.517915
-0.020249
-0.049108
-1.445331
-0.032766
1.074538
-1.727925
0.913052
1.479939
0.345662
-0.577850
0.227450
-2.174389
-0.514049
-2.736335
